{"inputLayer": {"neurons": [1, 2, 3, 4, 5, 6, 7, 8, 9, 10, 11, 12, 13, 14, 15, 16, 17, 18, 19, 20, 21, 22, 23, 24, 25, 26, 27, 28, 29, 30, 31, 32], "biases": [-0.9690898211307757, 0.07644033657682647, -0.513621147927414, -0.6633748709284577, -0.06750322419108801, -0.07862309179635751, 0.6857401871984796, -0.8386260382135444, -0.9365840961576097, 0.32271035450303787, -0.9205344854022932, 0.6787893139416787, 0.4254453123522004, 0.2444863252748235, 0.37096752707459024, 0.5824465225729414, -0.22294053270219272, -0.12000266510313295, -0.7269114735155116, -0.02846660500819298, 0.6115483802500594, -0.9891991544977412, 0.8443306726091226, -0.5250160570757805, -0.85028037422005, -0.2638859750448548, -0.1789601431755945, -0.17487093668925802, -0.6226443622391582, -0.371608950396199, -0.5384789658463303, 0.5656295825295001], "weights": [[-0.7785143343727111, -0.6679852449929079, -0.9273575283550378, 0.32328692440781515, 0.43107029627005167, 0.14884318266020458, 0.759415215962111, 0.016262357129799287, 0.4431151130324418, -0.2799614545663861, -0.2804176307325764, 0.6025168036688746, -0.7746830333894655, -0.19897884186558812, -0.16387329102087878, -0.6935627485409216, 0.6570778234543098, -0.41030452879131396, -0.021125237309954747, 0.6896189213081514, 0.7868574771611256, 0.5468871698856752, -0.2762848630365321, -0.05233932810725872, 0.4438427194836527, 0.5692681598271259, -0.10713044975363128, -0.782664139192948, 0.12561682551487774, 0.8661744670727107, 0.09218900269352392, 0.666679704516774], [-0.7454681936063433, 0.54226864964251, -0.47320231865724616, -0.3427346687929188, -0.00943712168768418, 0.11512991539641426, 0.8771270578294379, 0.42841014966043556, 0.21119817217379389, 0.027026866720045284, -0.9566799899133319, 0.5446353483726041, 0.908330406156006, -0.9576107894993157, 0.07496749120652346, 0.9812399267842715, -0.6745861437224193, -0.989995500530363, 0.0774907324474845, 0.19630718097796995, -0.3618718627067349, 0.9327234470653258, 0.12506494739525253, -0.2169805832530699, -0.7876541418603366, -0.9393712284400074, 0.7270794569758063, 0.8112689855411337, 0.8104379943780398, -0.10143630775225498, 0.8459716671486235, 0.7841679768797776], [0.8924690715780343, 0.5234555369243412, -0.6679989731281731, 0.9864264640651381, 0.3213417351920418, -0.6270281209925653, 0.6025065574640824, 0.49852564127339205, 0.28336887467856986, -0.6755909058516852, 0.10083684335305199, 0.698259739078301, -0.695701907877078, 0.5312370072137189, -0.7242636495056097, 0.3668367629506899, -0.11751994708167779, 0.9695124392898089, 0.1731977053705238, -0.9618986690608254, 0.7172468511248469, 0.28878531026182763, 0.6978790935192558, -0.16124557756993763, 0.46065338310975656, 0.3368683356510287, -0.7858268645740661, -0.0406518229991929, -0.7909724590536248, -0.6085872723288576, -0.6811482868206914, -0.8611831853194648], [0.5184562624700053, 0.002225036705811867, 0.6639408915961336, 0.817538614522419, -0.9486490534903486, -0.26404305069750567, -0.14178543086431816, -0.11670444540922975, 0.5996356855575091, 0.5606723786661321, 0.7094321911332093, -0.26173151831833963, 0.5270530016798838, 0.1400017822885995, 0.44455651993362455, -0.971854343971691, 0.03389073344620819, -0.5583480684969296, 0.446946885504369, 0.5486957636064838, 0.6721485919061183, -0.8661629683133382, 0.8169212700799027, -0.5562637458240277, -0.20144600608058127, 0.5816443530390916, -0.21286034276096266, 0.2758673943818786, 0.6918325429556198, 0.3976741559818371, -0.82075322851465, -0.25678273411735464], [0.07214081050016974, -0.40159332827238503, -0.5412481507671786, 0.915599511245575, 0.6914245989088039, 0.2744741392741523, 0.7173314693726502, -0.944042281179266, -0.7210753893529448, -0.9619076064008621, 0.2864244627763761, -0.08366723057909431, -0.4045371450626606, 0.7092471993122174, -0.5963636265423987, 0.7347946905471492, -0.39191359363754363, 0.5310697881394999, -0.48191399722673045, -0.6101676745568018, -0.09641131911447787, 0.4139988185038104, -0.7952661536854321, 0.07404916344798051, 0.8420813617095808, 0.7435640369715997, -0.33346450145672, -0.7963390477874684, 0.49031553559293606, -0.7845905582998428, 0.6350927131571638, 0.5191349256233502], [0.2695127072393877, -0.7790432610673902, -0.9223874164213622, -0.5668100271076145, -0.07659692691481446, -0.9274578277894213, -0.5448280850825201, 0.6721716142932288, -0.039170761435015966, -0.8825590644678291, 0.3810091279322063, 0.03806904254889831, 0.8219270321063092, 0.2281527622650863, 0.040354469127046766, 0.04674038273512249, 0.5337016909978538, -0.999636815982441, -0.6200752490761839, -0.32112693912213197, -0.7095990498281833, 0.1731531805938915, 0.31752063126401975, 0.8622447708583731, -0.7655895378010297, 0.9112391055775819, 0.9218029554862568, -0.3670396789550311, 0.527046472560122, -0.2599216540561816, 0.9680234392624119, -0.5231135634718665], [0.9134095849006867, -0.3036486467743701, 0.16285132894790522, -0.07833338866571726, 0.8586038413814183, -0.4114195409322251, 0.046462276635940825, -0.921667592512564, 0.8905287481259601, 0.11231446243834897, -0.4091989780743087, -0.7865642088994099, 0.9286564415260465, 0.25811569021565717, 0.19206703106338008, -0.1159457770078488, -0.3653429697192062, -0.37282471592836186, 0.15770910816713668, 0.9526073112557327, 0.5604485063137514, -0.005327989490317209, 0.8724802672390028, 0.06912026177137953, -0.28784833343403393, 0.27333574969599406, 0.1760704836398821, -0.3854192789410885, 0.9645075881424554, -0.3396178857165072, 0.5486605230527153, 0.7081637540925052], [-0.5924174436660413, -0.32386662199157146, -0.903448515133286, 0.5442264915644466, 0.6273283701965076, -0.5590644183518819, -0.18301503772047567, -0.26546937048251007, 0.8593450439632648, 0.6544652230183412, -0.017654483672012833, -0.5846710584899807, -0.5169063722203141, -0.5004709355679996, -0.7502550560071494, -0.8602586361737486, 0.5297874734129353, -0.08862674239658352, 0.250856433199238, -0.6941501470871662, 0.28440849884398567, -0.33038637648478997, 0.9879858441707028, -0.44748659023174386, 0.46345012891472637, -0.6123570316277412, 0.24454091025832847, 0.29284423136888416, 0.4436948471891218, 0.4971552249355087, -0.2773504081687438, -0.9610800243283905], [-0.08822313429641226, -0.2622815559441397, -0.6906404357326595, 0.09201457630096321, 0.976397217717262, -0.5855564155772016, 0.12053559869560182, -0.2007241604690554, 0.06708186442513364, 0.2367035002262221, -0.41673973696945243, -0.7501505202398674, 0.49722098617711286, -0.23042725412212162, -0.38482925016174685, -0.15838787056161052, 0.576927367317301, 0.4502515986297664, -0.9619889790365405, 0.03500687415558357, 0.0982901206622091, 0.690458136349112, -0.40391707576009594, -0.7485054032513899, -0.1005477484867926, 0.9871777260630936, 0.6808048065885575, 0.8913214461460695, -0.9544229599538047, -0.18775619837532165, 0.25612730732613675, -0.8161168424858344], [0.18217738390046412, 0.20884126344965948, -0.5562886395513945, 0.49892429542100025, -0.10182308235696269, 0.12204334088348023, -0.27363780448428077, 0.576695127376261, -0.9949386072453595, 0.9253726003019906, 0.4878872523650992, -0.7829555222043151, 0.09708749559890162, 0.863527244517774, -0.469324346433604, 0.4542891607143482, 0.14665924336580005, -0.9696372664950811, 0.7527986864441427, 0.0882802381269796, -0.32281457274994285, 0.09130967856303451, -0.30511939175944713, 0.8962569627008956, 0.3289830691894857, -0.9313960725136178, 0.4454404543949959, -0.4529739241643501, 0.8006129823569208, 0.5152028590177524, -0.6953303450054559, -0.2955029638303436], [-0.42026580965590943, 0.5309495146733347, 0.17696469984383745, -0.7241713608793908, 0.4473035843631816, -0.29122230480501743, 0.6790811173485349, 0.38845278778424586, -0.115452646716382, 0.4625976330258106, -0.759974625166686, 0.04609561036549925, -0.34144352472812833, 0.780579267739276, 0.8534960471846764, 0.8896822211457049, 0.9145510179957723, -0.8342194059090217, -0.6246505740545171, -0.35615455903197646, 0.3255113765168067, -0.5633141948527091, -0.004028897703545087, 0.35368019800366834, 0.39850008499158207, 0.9420409454953158, -0.6180481796755107, 0.34998691061230813, 0.6588404122967852, -0.5143823972728717, -0.6364533924161763, 0.26217271247139884], [-0.33796205687874437, 0.39967653319392715, -0.896978970394834, -0.7979955872668997, 0.3017499908651402, -0.6524779346058546, -0.42084485131607063, -0.4146237318583895, 0.6051053861734883, 0.6306280940781614, -0.47817162563358406, 0.06107374513526098, 0.3468775563606359, 0.2216075701020941, 0.7604775640761021, 0.5890650714503773, 0.17569511759402623, 0.8250316925409851, -0.34864978821522896, -0.044217039095128086, 0.5032136170564914, 0.20276698948197458, 0.8987946165538703, -0.04501829744527053, -0.5806669176512272, 0.10574887555750268, -0.796893254091975, -0.30522671569737814, -0.645647610683488, 0.6216159558977576, 0.5874918855529141, 0.23325531327308413], [0.3634598441466945, -0.981657180570313, -0.1909609689810442, 0.592979148047363, 0.04022041112524555, -0.5256323225503118, 0.029814396194124626, -0.8027415512731505, -0.4924132536329421, 0.6310748721846728, -0.5581076864462798, -0.654531722947087, 0.26131495035126306, 0.6531111508066649, 0.5906336007129904, -0.7819916106729515, 0.14327298266949118, 0.8582456974044703, -0.6763814124086293, -0.6879892999250442, 0.7842822184304938, 0.45541511309617944, 0.9667750895072045, -0.7641334806090335, -0.5279853312607495, 0.11603424000380658, 0.2589839680468611, -0.9636914610669999, -0.010875998187408364, -0.6810970330897229, 0.9738649758685765, 0.5843021948155167], [-0.05044212473418985, -0.4231293021929047, -0.4535124168133532, 0.33530876102843843, 0.1964102448448366, 0.8340726266812482, -0.2939287495658688, 0.2545603707615447, 0.7765014466338287, 0.027111517938668506, 0.4584648458445635, 0.4612658773333278, 0.5305086039265849, -0.45983448470073707, 0.6835311281001144, 0.02461285240826383, 0.9605202973284097, 0.17155625649413642, 0.3462439553551744, -0.868321862532404, -0.7497511795805537, 0.8065913848940549, -0.9104032214492094, 0.0439642463854959, -0.9709598168014865, 0.046414001851215136, -0.9899887480284323, -0.14780566952404406, -0.3981349017920536, -0.002763480124942208, 0.9769751550615546, -0.4774675954290336], [0.36996497727012434, -0.3668500490523846, -0.7777169772692066, -0.6211204016019981, -0.807136369629868, -0.9904574483922012, 0.5692054889339624, -0.7586962088775594, 0.522281825865011, 0.024008741292741664, 0.5718142268005435, -0.3251654109913281, 0.8353399591289286, 0.20976590953119834, 0.18282561995692515, 0.681192419919479, 0.653289437378735, 0.8515000877130183, -0.019348559787896513, 0.8769080305678898, 0.6054205184133212, -0.8086314359950183, -0.09745909370518435, 0.595054136599158, 0.8506911494300846, 0.9572835197529015, 0.3082716238686607, -0.2817192934658398, -0.375175951958893, -0.21402929927164338, -0.3232868805558039, -0.1474464180621159], [-0.09719449712791339, 0.4370302924810634, 0.5006627514987412, -0.5899673007642109, 0.4006452382436456, 0.9338042124133943, 0.848311356952657, -0.28752744514013096, -0.72125611016977, -0.22214824264219912, 0.29481564785420655, -0.04977299599216323, 0.3622264166463851, 0.618516522647703, -0.5076718969746176, 0.23898644888009546, 0.661242745457435, -0.3346488359918426, -0.2840747335207302, -0.026229137669782854, -0.25682308229411965, 0.17900090235948873, 0.7274353249014589, -0.9790342721254223, 0.5934134283211714, -0.8488784050368411, -0.9705425925749404, -0.8587361489678315, -0.39060787485524073, 0.5358312584200293, -0.28752732051498386, -0.44286116587048363], [0.19357665658577128, -0.4207291658285396, -0.41939213715224366, -0.31706856451811605, -0.6744715026705993, 0.6217725228888238, -0.5286562958297542, -0.30255215270975244, -0.2647676654283472, 0.6523202136371942, -0.3212975610913881, 0.19521017870432145, 0.38689018079112536, -0.08766955830206358, -0.795911761989284, -0.3615289722645473, 0.739564455604866, 0.9113332037476845, 0.630156575446382, 0.5315591379935234, 0.8260837280474354, -0.9220896967063653, -0.664747481602351, -0.04389204185188211, 0.5006670525323993, -0.012417364747854154, -0.8410441445638018, 0.5116049158874056, 0.9819918406249148, -0.9825844152329405, -0.5302915230989359, 0.9137392855374684], [-0.41357745096209586, -0.2021420497799945, 0.39272170751783664, 0.3116377056634909, 0.6792664422617465, 0.5877731629981331, 0.6024594456086834, 0.2964285210668751, 0.9876087073685262, -0.09485349669288634, 0.10584310955960241, -0.7096871318577292, -0.7204586666349774, -0.9262913984292688, -0.02641248971671939, 0.07898148206876199, -0.6013400949294073, 0.9487056041445951, 0.24760720552587845, 0.8405248185333529, 0.8746275843614066, -0.8083882990336287, -0.37417725842817984, 0.10941955002964932, -0.8177526653239396, 0.7453581566593224, -0.6001687935046304, -0.38406228835901957, -0.7416729013089894, 0.5481047169727242, -0.7276124430266803, -0.7591700060879584], [-0.08289221336634156, -0.5417138536099185, 0.5857588838139072, 0.9563595027641134, 0.7315645176468584, -0.5090508143666402, 0.9182334170778743, -0.19379893330459652, 0.5951160077703403, -0.9125932261923698, 0.11159484047550583, -0.472665837856839, -0.14744906593531015, -0.20845733625666496, 0.30711637923042323, 0.6630319559833531, -0.687313168632513, 0.5401407696052569, -0.5301340609202788, 0.710322122261827, -0.8318825839448468, 0.9085810372694771, 0.20273839159798435, -0.8649085610370052, -0.8212267971622512, -0.6334451608485995, 0.4453229044540441, -0.8286231664705964, 0.8097714651902033, -0.6678000705642299, -0.5201394845512183, -0.6570294303395171], [0.21884891499489179, -0.9784382644823629, -0.6841893557521085, 0.8795685589348099, 0.5090003162802201, -0.23716751882844955, -0.7536694922935222, -0.11359088396429173, -0.2141628033501618, 0.3956657458574604, -0.42377249828586205, -0.9445386375408918, 0.44767519695526614, -0.8423534886627008, -0.06722575636608064, -0.7191987228680544, 0.6587746797513381, -0.82522979693727, -0.3475197185947069, 0.6205312343988161, 0.3566519949166147, 0.11538505477658223, -0.5396174884145631, -0.355542254154933, -0.6065698981204634, 0.6516565346334899, -0.8028599394691031, -0.6895215301144454, 0.30068486548340134, 0.21336408899346715, -0.13882683698292142, 0.7484551486782833], [0.7403933592237899, 0.7488059289861368, 0.4275226060160615, -0.45257409334903154, 0.7757607456670716, 0.8659617861873268, -0.8281712260951358, -0.7948783028836978, -0.4885332809392472, 0.9953358363495348, -0.12123089413964128, -0.3948150580155684, -0.38968112785984277, -0.7450581035284659, 0.5040549933053184, 0.9209862468680434, -0.07289877902859498, 0.6687874063473256, 0.7338952372752039, -0.6720856876295146, -0.9605227174556742, -0.2132547243640731, 0.6615003765918659, -0.33904501147433297, 0.9528959280169107, 0.027583756545747296, -0.08100492403219584, -0.5327754915998443, 0.5849064669141191, -0.48716397958040647, -0.7488876482185495, 0.4402054625941836], [0.45173287749204816, 0.29506618840894694, -0.05076425629481551, 0.3445565246353022, -0.869986048790223, 0.38312654310626826, -0.7417700643192481, 0.9637935471254959, -0.06841542645427989, -0.46407661955586044, -0.35134199161382995, 0.554993337215532, 0.6032926521184785, -0.38741937280392424, 0.45113149541724384, 0.8155096131015438, -0.695522471477484, 0.7047166810437817, -0.6147785451268223, -0.06654296934380366, -0.7298588064542176, 0.16313771641575991, 0.9029549826458463, 0.9364767673057592, -0.9125846139212274, 0.6617506480698445, 0.388328689439577, -0.93640886251479, -0.8698045232431207, 0.2900615917434437, 0.165704917356031, -0.2195411923706171], [0.9497671477668637, -0.5166447308826684, 0.26851663516208735, 0.06438966002185786, -0.7758479308990897, 0.5926174772017565, -0.8051891594972213, 0.14647955672015067, -0.530573299607083, -0.6118286580465223, 0.892666108685483, -0.5362416387425465, -0.232164446088302, 0.15718160138179949, 0.7184183162383504, -0.5140942380729342, -0.8051623051648807, 0.07857402713588879, -0.1124865440040893, 0.04900874595154914, 0.6942903460816634, -0.7090452125690886, -0.8024603560695586, 0.08464909152842104, 0.05906427120751401, -0.5788515520936653, -0.9522202658406617, 0.6571486445734847, 0.9030955634865734, 0.6894068459215186, -0.13199744222784437, -0.1226796404099012], [-0.9710960620282886, -0.30721424181266876, -0.4604810855888145, 0.11648965153855961, 0.6913943916918446, 0.3121838265020065, -0.04147165566105249, -0.16852951533956173, -0.5422143184789455, 0.4961504002191064, -0.7262515642597344, 0.971985689615698, -0.21698297453987092, 0.8146371803944561, -0.42992608212034444, -0.4080133164861347, -0.9895613123036281, -0.4969342578889012, -0.15494234837634535, -0.9236590599668885, -0.8948428866928096, 0.8785081967296398, 0.00628382974055075, -0.31607800027249355, 0.9570084802285126, 0.2597310025141799, 0.7282634270557109, -0.30961557103326964, -0.9674762948284944, -0.4311716479655524, 0.8775864194095444, -0.6481976855265043], [-0.21142579949399443, -0.596645733176388, -0.7396705041581401, 0.14667602958051695, 0.9889566351042949, -0.7598960213390412, -0.08247464558302664, -0.4887795181796427, 0.04540521825459676, 0.8131092104021458, -0.8093452314423649, 0.5182950216900717, -0.14504866678215855, -0.5574485263419705, 0.8661631491332509, 0.43202690444343306, 0.46393660190008346, -0.1601481120217706, 0.19714498328183838, 0.32381442983011555, -0.7201046930596858, 0.7141684327913898, -0.36930790474773156, -0.08272762157130364, -0.2769283407900437, -0.9906573738623469, 0.5132482191548773, 0.9310087163774141, 0.9381340677106644, 0.20343309633321605, 0.9577359088070905, 0.4066338493230366], [-0.14204525552394898, -0.08808822684695528, 0.38616339972299807, -0.12799186088978842, 0.12987339092984174, -0.33068161534494844, -0.8018078672314369, -0.5723803321526065, 0.4186908398098548, -0.942017915741065, -0.38055217442600087, -0.23760739184443025, -0.4625731004383128, 0.7408639922126485, -0.4386028707855235, 0.7118699533533435, 0.20566779951010083, -0.8233568052610344, 0.9884030798562029, 0.4225571303248543, -0.8610823306627277, -0.5754491669874967, 0.7095069482283876, 0.06960567604578971, -0.24590564286481598, 0.10525458859253556, -0.7660994555910711, 0.9503931049546308, -0.09420939401148265, -0.46945023958778764, 0.025143014091341787, 0.3200049657761279], [0.23713992115986482, -0.20346917108761564, -0.840921678806042, -0.9671828701232693, -0.972630428795603, -0.3328392490754001, 0.3314821880249008, 0.44132768499504316, -0.8172816172752949, -0.10758057721371272, -0.8211978542884711, 0.45626513293483795, 0.5305667693344982, -0.11783405598644825, 0.19360893855233607, -0.5458850310080142, 0.426284620483222, -0.2515920975030316, 0.050161729917869824, -0.7324065785217418, -0.42761243935502835, -0.9201824222035638, -0.5817312713446184, -0.5989732387854109, -0.994797368099665, -0.007383744273288362, -0.5473655430297758, -0.5193938754093858, 0.2675436827527782, -0.599939796190973, -0.46135204668939556, 0.5326094562126098], [-0.7276326653628228, -0.5325327289754819, -0.2356821638610146, 0.1830816562827713, 0.9769833312644716, 0.03236681286945542, -0.040805732950944695, -0.5234677823781574, 0.8617190026579045, 0.49606778615429636, 0.516647060187494, -0.5121450766798935, -0.4870230745942098, 0.25720612369837736, 0.37732847912964296, 0.9118113191643245, 0.511610392641725, -0.09167853225952116, 0.9925794935236758, -0.4905472522037543, 0.1306841485801984, 0.43270979496798345, 0.4832381111001687, 0.7579298921050692, -0.8401364286257432, -0.2741413296210674, 0.8446341625159182, 0.1275574106012729, -0.4018164705564552, -0.10318930603367049, -0.1821155218164009, 0.7555486422450861], [0.7794633810164164, -0.12462880542185795, 0.9305015727789359, -0.8741566022306312, -0.1405721990001224, 0.6613228960981954, -0.45446405030000203, 0.21800207944241512, 0.31802227135327055, 0.31937466236361844, -0.3480475212070556, -0.8877158179127999, -0.5353576383113471, -0.3135933112067598, -0.7697818064267777, 0.6331665947485603, -0.14605242826380438, 0.9408646918565573, 0.8247953471940419, -0.9719163298526293, 0.7587120090557082, -0.2600306362694179, 0.03691703258073753, -0.5694911975277265, 0.4151650200133279, 0.6182707930348492, -0.32870658548913567, -0.09747845774603048, 0.2567602694279145, -0.5743790745818759, -0.46756832308677343, 0.026794722300846896], [-0.9881714312592814, -0.633014775442282, -0.991517840794386, 0.12514613664558638, -0.2864828837800778, 0.862385841659155, -0.8463387279577038, -0.43288284463254734, -0.39374051162766854, 0.28802524644866745, -0.8293613170878088, -0.06972627207767845, 0.9972642933592528, 0.9819608258088994, 0.6595505298754176, 0.31395721001893007, 0.19363398307472446, -0.06231842663759479, 0.14148899277712124, 0.17608489410203276, 0.7605572141965782, 0.6597651190585827, 0.2694479440002868, 0.18111887632044965, -0.3259496510323311, 0.47120336485561465, 0.9693751360968323, -0.9458677302485071, 0.9426437656733024, 0.30901986414004456, -0.7296678884028885, 0.7772758278107483], [-0.005754191511080031, -0.8993119457220963, 0.21200232556980358, 0.615740618762572, 0.474097557943312, 0.3206898765788577, -0.13963258534241263, 0.9849607885522449, -0.7677944813032148, -0.039484474230366495, 0.3417799789236122, -0.9088348498682562, -0.38125181379553863, -0.6229105184457816, 0.5033298235160912, -0.01869144890351382, -0.25037857372519234, -0.8678705566643631, -0.25938145748046926, -0.7731735227040667, 0.9362116995752228, -0.9605124122303744, 0.7354087789147683, 0.15503366483312586, -0.9002619134381317, -0.9200280483786353, -0.18347963654726518, -0.26749415898007445, 0.01830342717363509, -0.2000191388039544, 0.3778735012753236, -0.692967307794499], [0.642200138070061, -0.9084253800516929, 0.5395927169307155, 0.9396598337571329, -0.5520668027492214, -0.26643211751477824, -0.217456488092021, -0.3788270327360782, 0.20323576603056814, 0.002305594772936015, -0.450844319515895, -0.8049941031335156, 0.5945455756357862, -0.8376319716190738, 0.6784176225232459, -0.8406236283778322, -0.9142369825098343, 0.7237920028896836, -0.05371268104837423, -0.1087604795512559, -0.9041487288713072, -0.5285646415782425, -0.4685950490470113, 0.6594512796999705, 0.7343987340226343, 0.5184045229666783, 0.32572967537346154, -0.9196256941380544, -0.12582648154997844, -0.05541298989109256, 0.29400626221047865, -0.6575650293094492]]}, "hiddenLayers": [{"neurons": [33, 34, 35, 36, 37, 38, 39, 40, 41, 42, 43, 44, 45, 46, 47, 48, 49, 50, 51, 52, 53, 54, 55, 56], "biases": [0.4168994987354783, -0.23163387264712398, 0.7068538919450914, -0.8144483301256633, -0.1818404544655381, -0.28488168016438264, 0.9223639168912615, 0.6469808100482044, 0.8924260697449093, 0.9573280347544574, 0.565618747477642, 0.7278606630416082, -1.0138040288818377, 1.0552430928272254, -0.473973314104141, -0.1537951852901978, 0.7323766205785915, -0.906759540224174, 0.6399410425960523, -0.09234827311793968, -0.05489614901490641, 0.21436238708576774, 0.9182807884168818, 0.7721944156540148], "weights": [[-0.5678579178723777, -0.030943940582486607, 0.3545793395314054, -0.835890614242746, 0.11673627939322251, 0.2026285686402009, -0.4584056893471468, -0.9942723298734494, 0.7226752569944102, -0.4070176752737074, 0.8454160738554088, 0.43972601831709107, -0.04983083069702562, -0.914272024670849, -0.5874294076277665, 0.7501161820965409, 0.1710667267764779, 0.9503235026229779, -0.48321133734794014, 0.9181060208532998, 0.8313609733530948, 0.07652354805487871, 0.6643442582189265, -1.0346136323557757, 0.7994649161654338, 0.10554988517511915, 0.08458927306998815, 0.17902751808947068, -0.4058392098567891, 0.9560900028231417, 0.913996994178457, 0.5485868691655825], [0.7790600890233339, 0.07578672046097983, -0.5294633016532181, -0.13303607780689808, -0.021160033505668068, -0.9328631007774192, -0.28846917115880055, -0.6939400198776804, -0.08843103282669666, -1.0073509989544494, -0.08644048677244878, -0.4752914486031069, 0.7066550682483367, -0.15999323317806224, 0.938014292169027, 0.6427249222916848, 0.0680356412026224, -0.8709998788662414, -0.35069046368312645, 0.667102905450507, 0.5190534112929828, -0.6610120204907888, 0.7772559649080201, 0.2724007998015825, 0.9800841476692801, -4.041523931239794e-05, -0.02232420454473921, 0.35720183892629703, -0.33417220518053964, -0.365581800696805, 0.7756477800298147, -0.5004894038422096], [-0.08499501022597385, -0.13877541371755805, -0.09719112965840408, 0.9618409466021623, -0.8674634211925736, -0.12967297774197314, 0.1736531245716372, 0.11130502418486014, -0.8614020104122467, -0.25443529884685545, 0.0785189808740671, 0.7893476819437883, -0.4197091662740682, -0.48005884399754856, -0.22399949689013637, -0.18387672887880926, 0.8592096382032409, 0.011076049707496599, -0.6538693562456293, -0.21150292271052118, 0.9103468613391656, 0.612067123123062, 0.3060114153903698, 0.5013815051941064, 0.24551726319136583, 0.14423784230634162, 0.053220154489688525, 0.6857547182132668, 0.06698928027830868, -0.0661394471576825, -0.9119196061968472, 0.8651833622530851], [0.32383582785986387, -0.8140650768527553, -0.729895292237705, 0.5967507483350057, 0.7799412452760437, 0.31631027364955855, -0.6095031219476239, -0.8210465020261218, -0.4520043431275164, 0.7320390717111456, 0.17936647111557022, -0.2665707471457989, -0.8897515329905105, -0.3904206151795353, 0.580843749687223, 0.41287004011074047, -0.24638610940489325, -0.2559977856934938, -0.09087611206118368, 0.6986397146233947, -0.19007517480392283, -0.8100371698201858, 0.04198763699821115, 0.7015680207472318, -0.14686790613247674, -0.3683566520901913, 0.24711834071451813, -0.3567124310938077, 0.9484149284574088, 0.3634836992393524, -0.245760680256648, 0.8678315964698414], [0.4947835556771314, -0.7859072071992005, -0.4599968364329869, 0.6583034531400707, 0.4161281278968648, -0.0468577155098095, -0.5660357855622563, -0.299799592873608, 0.0937861388681847, 0.8496821487251996, 0.9105940262390502, 0.6266226707989425, -0.4813067991803065, 0.403724107725031, 0.15993031080840642, -0.3258825509012367, -0.85453472591809, -0.7243092170141238, -0.23186827416041744, 0.08389001465038441, -0.27036606681145653, -0.6224673418644777, -0.4168840669417017, 0.45347230534726046, 0.04944146397937495, 0.688078372985194, 0.7012595946181168, 0.4857739678167681, 0.2121164216364291, 0.026023870114769757, -0.8821152496674503, -0.9355860048988837], [-0.5851692715713839, 0.8112615483827239, 0.4891150830740756, 0.6729668397059155, 0.6730428128393909, 0.9096543531775668, 0.09395311125944146, 0.1143161704129683, 0.17054412708990113, -0.8828401747464744, -0.6822985553034321, -0.8757067115085981, -0.9154434422805293, 0.5460321246892438, 0.12340604755943582, 0.09632125398781383, 0.7950474901809657, -0.8724748576893736, -0.11372702773071688, 0.4718009555213016, -0.5921376712547708, -0.8771876749524412, 0.6319675408991514, 0.9790441474402605, 0.34084594349504765, -0.8447589581803713, -0.9869951964165194, 0.05774077263196886, -0.5490230902438158, 0.5532415876109098, -0.03710407869882432, 0.11748653171682744], [1.002144435529402, -0.4019127901293228, -0.47050397932191496, -0.8745045433171457, -0.7096304308926714, -0.5881712893872582, -0.3641773154999238, -0.15589481983242404, 0.32019171234078875, -0.23324198227604126, 0.3344217696122634, -0.3429524191213859, 0.8948491511582641, -0.05255397150316293, -0.604879414959786, 0.2337897180523959, -0.9028556904269968, -0.8626274780978702, 0.6622919448434039, 0.6113321871544388, 0.15549547899289737, 0.13521281375167607, -0.41911039341763817, 0.2072789108521511, 0.14760412944692336, 0.5357818395506082, 0.7146045223342402, 0.03800217608022578, -0.585505869974845, -0.7362927211417317, 0.6062937197646289, -0.9520582431801842], [-0.30778728776123443, 0.5084731054207273, 0.8670407708114345, 0.41101775563633114, -0.1543001881471261, -0.5752731284840232, 0.6379938895403271, -0.7146374146755097, -0.7580440821717529, -0.4409166272980786, -0.47187071945031955, 0.5760984580101776, -0.09208498257313778, -0.164031371995131, -0.16767942451503626, -0.3377821062336343, 0.06424208041515958, 0.3472960018296226, -0.12311543566138416, 0.1337435748796885, 0.2762409407057763, 0.02560643772742432, 0.711457151584978, -0.022820211816526326, 0.8375405007435652, 0.8810165545817742, -0.6463461231477321, 0.03250170753678817, 0.7373534509652032, -0.123127852936982, 0.5521691469709263, 0.8131929813286346], [0.16802448687256658, -0.4424627652592839, 0.8138985699581649, 0.5359414296758912, -0.12182672947903472, -0.9964161384071044, -0.45674609911099834, -0.8232639304700533, -0.06484985316229971, -0.5904036449188221, 0.2995954681915629, 0.3663743052825035, -0.8996600635427862, -0.8468217132214001, -0.1936703696622484, 0.5018800464554423, -0.27258842334382044, -0.04132444810723654, 0.04616073757627246, 0.3103781569188113, -0.36779550017888846, -0.633935209715796, -0.8289743634441978, 0.5388364451783646, -0.20830254758028335, -0.2686943831018285, -0.7353647152813095, -0.15415801618977526, -0.5924500845796478, -0.9734599918193374, -0.4745499919725577, -0.7752084778462062], [-0.9396089841526519, 0.9170848808848665, 0.5322912837326762, -0.26219646761037213, -0.6280517151258115, -0.7847060736953085, -0.511909634739676, -0.8205264239565749, -0.24661615305733225, 0.4149925187009523, 0.3859912528048098, 0.7984328385817765, -0.21823135880400454, 0.08035717530194268, 0.8921762945765636, 0.9052912081127176, 0.3214588780228808, 0.2967797417011121, -0.8790327507962991, -0.37573741729407456, -0.42033922619673053, 0.38929400197274944, 0.3636625553874176, 0.2699286212160381, -0.3979638694538599, -0.693813697147641, -0.2470007739324295, -0.33911439675129773, -0.7833084844662656, -0.8740001677433256, -0.3330930357393623, -0.9143783750707328], [-0.792899794124956, 0.68590243324995, -0.5788573594707405, 0.9787223378533295, 0.41553116977776144, 0.9088993932574969, -0.8257207327472899, 0.3714367733849073, -0.39440060854861175, -0.5112321575104751, -0.07999794901395747, 0.18398592599502908, 0.5142349075320772, -0.05601680476235388, 0.7012335492182558, 0.22498184557200784, -0.12494298123169005, -0.7168731820146879, 0.3395587629459509, 0.6820393339391708, -0.6836134694144247, 0.060860978190082377, 0.34473950893004573, -0.6497146965284145, -0.16302049947981842, 0.9070040570353022, 0.24533280450211117, 0.6564979482007235, -0.30111910082736265, -0.8200487966486624, 0.892192788413821, -0.5124636701177157], [-0.6808900140406167, -0.6944500687942274, 1.1038210284409673, 0.5445563888375503, -0.981529136063312, -0.13785676396927876, 0.8025212769578457, -0.5771858192417729, -0.582420812716187, 0.7374912282362285, 0.985698606820052, 0.36792122861584237, -0.5149966821988764, 0.9451432725939097, -0.44773198103891465, 0.08403859946352742, -0.6199254726047351, 0.646623671401431, 0.264421403646953, 0.32168887866364226, -0.04685699180666696, -0.5516737586334343, -0.7899801781976792, -0.8178723892428235, -0.20700772342541948, -0.9974633263156432, -1.041985130193193, -0.7622723356741051, -0.9285067988628589, -0.14641947461067711, 0.9996909357210735, -0.6511588806312804], [0.7588052297191485, -0.06181437278923568, -0.5679487237968888, 0.22678154084757376, 0.1695672333304442, -0.09866425192482953, -0.8256386889810862, -0.8302004379779476, -0.9466100831079288, 0.14340653837740858, -0.44042971196966574, -0.004189702992846515, 0.12436313397158688, -0.7667976622588359, -0.8193625855711295, -0.245947417846416, 0.5668976573636058, 0.10652417101919578, 0.00801022908866273, -0.20308909300378333, 0.007437193594129927, 0.1285014413053527, 0.2593866539719769, -0.34668625923108787, -0.9681156659869476, -0.04261787092605796, -0.8432714171393201, 0.16441441177202404, -0.9785459276745088, -0.9125806648186073, -0.8143547277727149, 0.4691463359176989], [-0.5426946960585579, -0.36622512286528175, -0.45239242194594603, 0.7270578690602852, 0.40030578054584603, 0.23046433155721263, -0.5397888125398795, -0.07578413737695025, -0.21419921008042628, -0.24462549058621103, -0.3802793304646523, 0.14684241081316818, -0.9328726554321849, 0.6603632543060562, -0.6640265917317562, 0.40389846116854905, -0.8285068202015704, -0.9028762795707138, 0.45142364592829404, -0.22403048719977822, -0.07443873047108811, -0.9047311817599805, 0.8081551890525719, 0.26091351686377473, 0.7768731829280155, 0.7023627228359104, 0.4793568789682672, -0.5801601716218906, 0.2235597009543329, -0.7083111463187797, 0.5347978968098028, -0.31336260342368394], [0.22123794011729273, -0.6033528819795414, -0.632132679972029, 0.8537837816138804, -0.13664898632158204, -0.3100269901571831, 0.7137118093988157, -0.4552664688818754, -0.6269779771025967, 0.7809987143158548, -0.5043863671791872, -0.5643646552759364, 0.909187902226592, -0.7717525919292191, 0.8243372813638349, 0.7815453841414799, -0.594596878461908, -0.6155059441680888, 0.5157581125595136, -0.09970981946545324, -0.09292685892014702, -0.5394040912754143, 0.7325525972534687, 0.28414979946244145, -0.8872478569030439, -0.27535588654741017, -0.3898441808079496, -0.1457226673693966, -0.10510286262219108, -0.058725101449878414, -0.43161415116190527, 0.48215716643819434], [-0.0004163098383226596, -0.6428143016794923, -0.21215649864047398, 0.24467449010749953, 0.36209667926020084, 0.0484700626067542, -0.6069048707448705, -0.8515455781374951, 0.33515774375650437, 0.7729496838790282, 0.4081598773096241, -0.3537491655805783, -0.876105897753812, 0.7578712927804202, -0.9374371907334312, 0.5918897279314205, 0.022491170592057796, 0.45740706442276385, -0.536687033724268, -0.6224630382811603, -0.8894426140497282, 0.2431421041971599, -0.24920075097334854, 0.30951913419479266, -0.06655549778986324, -0.43596403973452497, -0.4430961775301462, -0.30829432489953135, 0.42009328550409575, -0.42362934924479545, 0.05800387415907255, 0.8240025128693083], [0.04913038581473239, -0.7488709686759039, 0.3388110028562563, -0.4121966554727526, 0.2333942619258938, 0.42936410538217207, -0.04966921174068752, -0.6323209830366451, -0.8382511665629201, 0.2630960960006489, -0.6288923623153752, 0.6350021527458952, -0.36661780557071505, 0.45642100311038725, -0.7219335003862667, 0.588201004437072, -0.8632519016985469, -0.546555232659675, -0.5765720223410463, -0.8892935319843279, 0.032318912383535084, 0.8310326398320801, -0.5652888337125368, -0.9125268315396545, -0.36834123280938885, 0.9394292895607597, -0.7892061515987987, 0.5358276947950023, -0.7247386128741264, -0.7902657611580538, -0.5009478536191488, 0.9599139073300933], [0.2629623503422703, 0.45577675366708087, 0.18328960785370368, -0.30324899554316864, -0.7496706370494889, -0.8495330748516128, 0.7366612346541342, 0.8375758381871955, 0.03759184327569387, -0.623027235050512, 0.28780024303661267, 0.07351749750238526, -0.6088554530535153, 0.14513441119709258, 0.41527686829245414, -0.49997128978829636, -0.60185953165754, 0.23239413318920235, 0.01683853145425401, -0.21141161131072936, -0.8805024926389673, -0.43406594546132354, 0.7683802375914625, -0.14772603593105968, 0.898977647658757, 0.7415548290950523, 0.31418054293147957, -1.0436503527173142, -0.7330870193325854, 0.6256077832736788, -0.9674929254927062, -0.5462189920628073], [0.3098676472891013, 0.46917783163489873, -0.9736051689186838, -0.10796391761050493, -0.2384039229397431, -0.8359020581948092, -0.9653100614847937, 0.11847693646987156, 0.42168271014440206, 0.8251005751935798, 0.23930290378505295, -0.7641670786419172, 0.44436837393102324, -0.2601212999557625, -0.024573002754243733, -0.1868218290974878, 0.7940005122227963, -0.5875020965980591, 0.6866424752684777, 0.49920662848748215, -0.40882030315006757, 1.0255132211489464, 0.8541045479849462, -0.25553701544257207, -0.6853929669920875, -0.699295029603779, -0.18334460697326982, 0.781217717580688, -0.3968300317397594, 0.3788683376461496, 0.044554342479549834, -0.6111003639474906], [-0.7019400845023724, -0.46470404350835665, -1.0235956829181048, -0.3016829982555184, -0.06450518261730767, 0.4716730124538065, -0.06905132482234402, -0.23897012591910627, -0.29876362170718346, 0.7610016648686693, -0.727309691755351, -0.5599328514515456, 0.7918623189349975, -0.06167884896588044, 0.2974017036604773, 0.6276356536242274, -0.07046039872373037, 0.34739196324619764, -1.012242501315938, -0.6114829524402277, -0.3613500168232216, -0.5535984442375802, -0.3469114776167609, 0.5171111932340215, 0.13346467463731113, -0.24019067456711868, -0.13983237910689206, 0.7958385438059385, 0.8334224627840527, 0.19807602554879705, 0.42453318958344066, -0.08836024688431428], [0.018703514036500106, -0.9204637002437541, 0.8794831293550568, -0.5806805597572415, -0.6356141073386854, -0.4880818118444692, 0.6941082772409654, 0.3366993853460468, 0.31436769131872583, 0.7429784468168472, -0.3448092440103851, -0.1780441941538544, -0.09422666503154019, 0.8954040924758915, 0.047303875972141675, -0.8131747515016476, -0.9627374061748559, 0.3327680328178385, 0.40423154860212485, 0.7872297256878796, -0.4618409079083978, 0.8070187880505121, 0.21909546054799017, 0.3284338536973799, 0.8159053156328656, -0.054734209039936504, 0.894884217637094, -0.47539762510918965, -0.6620559713955788, -0.28134190083235805, -0.8829351445580412, -0.15661071845464922], [0.4800000490970106, 0.08258219081152, -0.6266422440347792, 0.40226168055550443, -0.5810235405512003, 0.787630795169156, 0.7594694494356447, 0.31355534901875426, -0.7940216355818303, -0.811675150300155, -0.761920682014815, -0.7339451774228248, -0.22386282056136558, 0.2702834476093826, 0.5744566114900796, 0.6763062881302012, 0.9202571755029431, -0.6300527002207198, 0.23102244153823573, -0.14155756283168874, 0.8666405956035783, 0.2683291295787559, -0.04289271592192846, -0.14280872903145508, 0.06936549641855612, 0.19995168585792972, 0.19614014101257637, -0.08165811283126397, -0.8264326850949457, 0.351835939808093, -0.530950078447708, -0.06904748613455236], [-0.1710177795204247, 0.09420294996783822, -0.9328780332166997, 0.2354395074922605, -0.7283701268296503, 0.8421016095087508, -0.829537600092344, -0.36235503022028803, 0.786333016116999, -0.37636416516441185, 0.4618308768800543, 0.16756966582891059, 0.6375453356938502, -0.5416857835133883, -0.6931108699309929, -1.0325022103468942, -0.010365624404749469, 0.3751353556431138, -0.39303115818107864, -0.302936903523259, -0.7066327153107113, 0.18268299220035683, 0.06456936847090684, 0.8852361918679141, 0.9826699110050526, 0.03216926505295636, -0.40763298267613873, -0.5478256479143107, -0.9599638122065985, 0.7429986150787363, 0.6400467121341089, 0.3149861271158461], [0.33064070319759603, -0.16893575359338428, 0.05250319802551705, 0.282841240285338, -0.3014187585419179, -0.8650551179051081, -0.22306538012182556, -0.5303253269573611, 0.8751534849852065, -0.4598046492789207, -0.5951418303637954, 0.9710411810813125, -0.7174167629359613, 0.7265627305922695, -0.19389721377614977, 0.8100171575619796, 0.9603047858543073, -0.6655996603540123, 0.35821767020177203, -0.08976039989546178, 0.2891226726048764, -0.25021512994342227, 0.9973346245667349, 0.5494198246616245, -0.26613901747492036, -0.357572687850904, -0.6045749371963155, -0.6552251988799631, -0.672101495548034, 0.6679966231335513, 0.17795731416440022, 0.2990444142004537]]}, {"neurons": [57, 58, 59, 60, 61, 62, 63, 64, 65, 66, 67, 68, 69, 70, 71, 72], "biases": [0.7770191728443722, 0.40649699828395053, 0.4131174020746283, -0.2995963336804878, 0.17421050539633953, -0.4300852426999771, -0.725900372934413, 0.30826859151925706, 0.9677815206525503, 0.9969645981082799, 0.5934094561973179, 0.6380805191097374, -0.6904986614385817, -0.8163259233477682, -0.5232735952888451, 0.678747703558626], "weights": [[-0.22252629625886902, 0.11131555944762177, 0.7927372645242363, 0.572969163119708, 0.7778316409319216, 0.9532814716329544, 0.7690973734410278, -0.9307060261767469, -0.6134602844134474, -0.8734121253534803, 0.47999316140499215, -0.08948403311214505, -0.07316612411402243, -0.43900181860394255, -0.6790814219819201, 0.40102940313845636, 0.8983066354554384, -0.4764507851604156, 0.45073221053803847, -0.26318748792402497, 0.877323893295838, -0.10835595449950758, 0.9119956908390981, 0.7174198423885773], [-0.3964897818934364, 1.036065557631125, -0.38163459769461605, 0.6359816038646602, -0.7721048203922007, -0.6595558021866613, -0.11824756849999907, 0.8476077555530019, -0.6675299524124013, -0.6120732951509392, -0.3619016377679698, -0.8902028084842286, 0.10222832338546647, -1.0253685887972501, -0.8647456510514089, 0.33412421037021717, 0.5905132740786392, 0.6378515945994288, 1.6589172074145422, -0.028387756120677704, 0.21980813380051303, 0.7401181812229596, 0.6633729358417456, -1.3417125393290807], [0.667139374626742, -0.5645769330272942, -0.4208117202806989, 0.195908095018303, 0.47630277562492235, -0.09607763468639317, 0.57423009776714, 0.021037010005017374, 0.18285585966472473, -0.6342578474601746, -0.7269154471548034, 1.0886906785369541, -0.8881662008700913, -0.6830661035546586, -0.0583270710308764, -0.22930218266913757, 0.08663312871055569, 0.2946655048380958, 0.6326905516261718, 0.9754117794965961, -0.49609502005972583, -0.7996767594695601, 0.32740803140875047, 0.8426293341779736], [0.7451550592366826, 1.0052811542029352, 0.8305902316508742, -0.8813808842954243, 0.7705398076019865, 0.20657069076966952, 0.02725087980967573, -0.8555802455450531, -0.8966479003162169, -0.6302923983423853, -0.3841017379192092, -1.0874881809022765, 0.6844549783569176, 0.15025927121053878, -0.7766212978231902, 0.6100629514291687, 0.5669488895479218, -0.8022048866248209, -0.20213139388560772, 0.7090001661373185, 0.6093261101383647, 0.4444457438342502, -0.348257950948866, 0.8111805527659554], [0.11103845008007902, 0.20471831445563035, -0.8787388869687103, 0.5478010803740256, -0.1557121765307916, -0.7631478722367028, 0.034392069083234035, -1.1461827988793414, 0.5045390627100873, -0.9904528676571147, 0.4245588398674265, -0.374687705489191, -0.9288558572934894, 0.42292502095830964, -0.5898114284488598, 0.16509941652391633, -0.9503186039732091, 0.3573207159423013, 0.4196711777001335, 1.263588692206866, 0.3155029448472818, 0.1436144901361373, 0.3409875067196786, 1.342905083254456], [0.9976702197831866, -0.49433097097666534, -0.24344239981052845, 0.057351362521059664, -0.060964012154182866, 0.2528618758570234, -0.6259426143227768, -0.9798365196221169, -0.6383063060652147, 0.7568704870484272, 0.7821929263938578, 0.6882803604301823, -0.008887544537141948, 0.16933577925358953, 1.0179241167958457, -0.9056041898405389, -1.0261780421524618, 0.23890968426773354, -0.0514592587666661, 0.9259916678265473, -0.7241244464519826, -0.5879195378393463, 1.0074323049751406, -0.7115318975243734], [0.8069637911436239, 0.6703520254752708, -0.42995028380349476, 0.01497780890217737, -0.3557671469229873, 0.0664903595361789, -0.4383981644835571, -0.78546244871446, 0.9488038102303368, -0.17205526989841793, -0.09077646988197681, 0.19210939324449294, 0.1607639997917205, 0.28098170683654156, -0.14290780641008857, -0.3179035906538425, -0.4746740577431793, -0.25515050286120294, -0.6684244606128718, -0.9358463881595945, -0.3509805240626395, 0.9265256713450408, 0.49281602488154186, 0.8046875279459669], [0.07104549576330815, 1.3365370318676124, -0.4659144852735303, -0.574247194718383, 0.9846142861955343, -0.7825439661992135, 0.47386789099758453, 0.4993474351575396, -0.48167664700487667, 0.9021089108462789, 0.3919369486590004, -0.9243728352840804, -0.37911218653639445, -1.2909412927600226, -0.9736154166324801, -0.5844688471326591, 1.076270737983219, -0.4332199190764446, 1.1865690913019977, -1.4327555823242064, -1.3689464989052311, 0.526502457647264, 0.30337304547178834, -0.9077443841847493], [0.7968550858772026, -1.2509245559907833, 0.2777199752904396, -0.841684582208949, 0.013462544634595707, -0.46628632508812895, 0.17692037277710063, -0.9757430488509031, 0.09867441620781539, 0.2280209436725067, -0.26409188353167345, -0.08478061233881129, -0.2050838198339756, -0.6343671346041847, -0.5594744912578944, -0.7272433691540261, -0.703960612371082, -0.47565696860419476, -0.902044585683019, 0.13622744965982786, 0.6962632633489898, 0.5188223162853333, 0.8103949921878326, 0.22011110477901233], [-0.95891057066982, -0.16483589910223728, 0.08193895292490574, 0.0920392134908509, 0.6252426287714614, -0.2250267301231791, 1.0089947357298756, -0.2897562882803695, -0.8550394669476123, 0.4943475144096904, 0.6114726527220884, 0.3377346743942056, 0.15780805266212947, -0.7570247661102837, -0.7070895792064854, 0.2734962702301046, -0.4877201566884791, -0.6968879774991075, -0.7925612540284517, -0.8664092827644257, -0.6028436701360746, -0.9781485079740193, 0.5109231003564678, -0.9192646755337271], [0.7859613284042932, -0.5234528039360752, 0.16014290337296047, -0.026036097858954037, -0.43970928261463255, 0.34070703490582865, -0.8446711439753337, -0.1182490924697141, 0.5050008615973156, 0.08602832393521745, -0.06816184348146544, -0.5577683696815717, -0.027818480786188284, -0.6349600167598198, -0.2708522277372437, -0.718819825873502, 0.0881825274490386, -0.19197709739152585, 0.4572224787205406, -1.1329586887684329, -0.741028570686627, 0.4917479155503161, -0.4288143253832135, 0.17203472021752977], [-0.3813540340502509, 0.2949915993875386, -0.5531962815332249, -0.8309437560668017, 0.3722075525743939, -0.5277650228192552, 0.3736105786187426, 0.2954589704692654, 0.9651278514916494, -0.6084640561285191, 0.6444393144688456, -0.8445250321569615, -0.7414939996259642, -0.46960736988586044, 0.9963932020830072, 0.9721822627210492, 0.5543627586903779, -0.9663232655862025, -0.14203336641441355, 0.8011355516208829, 0.006571325168961051, 0.7192297753062479, 0.059806867643374687, -0.3421776213280516], [-0.4652778418417059, 0.8487094017609049, 0.5022889229017967, -0.479896375061119, -0.35492040129671315, -0.31666025940267234, -0.3706381093167108, -0.046425864564383724, -0.7663500592724953, 1.0210922275624104, -0.2828924631669609, -0.9684961700728489, -0.5693857171868391, -0.6222147928599651, 0.32238542942706677, -0.7748164005171969, -0.07307241578693095, -0.30549761118558694, 0.8245157268565337, -0.7201026005829966, -0.50768890297921, 0.638303121539965, -0.9515120285132698, 0.5661809462374052], [0.6094225227020589, 0.3589610266090086, 0.5640234608760135, -0.6411427780340918, 0.12874880882868786, 0.4353936486518434, -0.3766193655761765, -0.47765509615092366, -0.5637295627946423, 0.22536823265127853, 0.2308852279956511, -0.7879046657239703, -0.22670567081558127, -0.7192234397727266, -0.5330293947066878, -0.6199666714919208, -0.04990075468934118, 0.08452337760904315, 1.2139174883480413, 0.6465180952851483, 0.6015272823747913, -0.18570879451575076, -0.39558986465962853, 0.019019852122735284], [0.8895967474914206, -0.9944825898895999, -0.9215594683271437, -0.8114382618298378, -0.5998363923074875, -0.1603834591152298, 0.5136043061478588, -0.7287414349405295, 0.7802713728165814, 0.8590383491383315, 0.18400611694125435, -0.3298335566236691, -0.4555358197230762, -0.3909572574056731, 0.6990507196662504, 1.2223008955031862, 0.24262445003292293, 0.7984495455436524, -0.6334455426426719, 0.8846681918378105, 1.3325665408932579, -0.2812574933064982, -0.14469731812372713, 0.8965194689794846], [0.6691143330503064, 0.52526355693241, 0.33930431745158024, 0.12360368072160333, -0.08555220592621567, -0.30948579255312614, 0.9065441690849633, 0.49013560497230907, 0.8275661802354667, 0.6185120672662796, -0.8942810082702505, 0.582140015210288, -0.5358315929667112, 0.6226102577965158, 0.7106359048252737, 0.3702972735780099, 0.47935623785390774, 0.24074756820395832, 1.0022299055176116, 0.8868501007729948, -0.28920823583989497, -0.49499977115518706, 0.6076229529125783, -0.9526615260339143]]}, {"neurons": [73, 74, 75, 76, 77, 78, 79, 80], "biases": [0.4062444135017017, 0.15363514499341865, 0.7014116099143154, 0.6097872960431918, 0.4468812786377492, 0.034404264947193786, -0.6599153327154806, -0.00833175547041227], "weights": [[0.18369279481072795, -0.8977031025201674, 0.6204206056107118, -0.9643842507109159, -0.3893302706147778, -0.17520507948860045, 0.47957831388276845, -1.8438809320535257, 0.8979658182050957, 0.14026288675971688, 0.6047915681541113, 0.5676848894688672, -0.3833087086540411, 0.08538935427968003, 0.4149693644047057, 0.521317451443182], [0.27994303919539426, 0.42595783245352437, 0.15984408035792474, 0.32771459809830167, 0.24399311573905466, 0.48157063702069963, 0.13960790243149104, 0.36931586864115395, 0.8759670954546055, -0.49231701882654694, -0.3342643906837155, -0.13987657045287707, 0.0032707119862619527, 0.18245006864269164, -0.07379190733411797, 1.2031382783936058], [-0.28764941765125895, 1.2706379498374314, 0.24215692212515275, 0.6806952144168045, -1.4547540422880667, -1.3610126449793702, -0.9705508155118088, 1.6679921753752078, -1.1978001059232557, 0.25121595397830226, -0.8502986236684913, -0.26032967363888987, 0.153005679716507, 1.1224089380396571, -1.8093982954688899, 0.014662228810665694], [0.502514134844701, 0.19152554830860524, -0.19676850378127553, 0.47605867198657403, -0.20669084026864107, -0.7629802423333899, 1.0043714851600116, -0.48764574833247404, 0.6009716094877251, -0.9824980677034096, 0.8587554537658346, -0.8946088809201845, -0.26038999094263754, 0.9070401572239062, 0.9626172298784151, 0.5656102825522545], [0.49163106561524916, -0.7161935236069161, -0.48095831848201903, -0.46132177922066814, 0.3641767980111811, 0.5044474467230172, -0.5634761620538591, -0.9533014372206898, 0.5274993414764334, 0.5222591345942403, 0.7213384256192108, -0.2951476666514001, -0.5069412522927339, -0.45112776934183096, 1.4169580010152043, 0.5695688142772675], [0.0008855213786475328, 1.5409843186281782, -1.3360143192750928, -0.25754203788784197, -0.8874760260810893, -0.24025725171139217, -0.8367095235865869, 4.025795206409121, -1.5804557193945685, -0.06844732993500685, 0.4878646443616944, -0.49268384822594846, 1.825927861927871, 0.40698348280428154, -2.9509343389954306, 0.0830164216231154], [-0.8798865282791812, 2.8281940421269622, -0.4890084284786651, 0.7821014836796375, -1.1600849939377413, -1.7442138141853383, -0.39314055593511504, 4.024538341588915, -1.9678662577070687, 0.4082097864190705, 0.8980934255937707, 0.440531628651968, 0.8038565602347879, 0.7287623195807289, -2.4855787709299952, -0.5503431861359419], [-0.17089958272724234, 1.0327380563965503, -0.14402477440064482, 0.20376540655094458, -0.8352729659705947, -0.0003929438586973195, 0.41844916262779797, 0.5679402676061099, -1.3793220569742912, 0.6306629297228364, 0.4616580458244919, -0.024851918224256125, 1.0090519789274839, -0.2628017310190127, -0.4026257375255759, -0.3947749925887511]]}], "outputLayer": {"neurons": [81, 82], "biases": [1.3439373000278807, -1.4010766106133106], "weights": [[1.7114849456026224, 1.1061274738531794, -1.8104908858412516, 0.7722871615195882, 1.5852391546146305, -3.851956634854012, -3.9346625369904427, -0.5931079845179084], [-1.4900211618285562, -0.6173543976542994, 2.054562612493207, -1.0520614056168904, -2.1501092226008267, 3.389065029987099, 4.01182239736927, 0.9696905034129522]]}}